digraph Tree {
0 [label="_dna <= 0.5000\ngini = 0.732567278353\nsamples = 10529", shape="box"] ;
1 [label="_dental <= 0.5000\ngini = 0.643698943695\nsamples = 5512", shape="box"] ;
0 -> 1 ;
2 [label="_fingerprints <= 0.5000\ngini = 0.720300256077\nsamples = 1891", shape="box"] ;
1 -> 2 ;
3 [label="height_bin <= 0.5000\ngini = 0.66691043812\nsamples = 1468", shape="box"] ;
2 -> 3 ;
4 [label="images <= 0.5000\ngini = 0.439392661743\nsamples = 449", shape="box"] ;
3 -> 4 ;
5 [label="_haircolor <= 0.5000\ngini = 0.354492585248\nsamples = 387", shape="box"] ;
4 -> 5 ;
6 [label="gini = 0.2993\nsamples = 361\nvalue = [   9.  297.   55.    0.    0.    0.]", shape="box"] ;
5 -> 6 ;
7 [label="gini = 0.4704\nsamples = 26\nvalue = [  3.   5.  18.   0.   0.   0.]", shape="box"] ;
5 -> 7 ;
8 [label="images <= 1.5000\ngini = 0.656087408949\nsamples = 62", shape="box"] ;
4 -> 8 ;
9 [label="gini = 0.5907\nsamples = 42\nvalue = [  0.  16.   5.  21.   0.   0.]", shape="box"] ;
8 -> 9 ;
10 [label="gini = 0.5950\nsamples = 20\nvalue = [  0.   5.  11.   4.   0.   0.]", shape="box"] ;
8 -> 10 ;
11 [label="face_images <= 0.5000\ngini = 0.69109876045\nsamples = 1019", shape="box"] ;
3 -> 11 ;
12 [label="age_range <= 1.5000\ngini = 0.669076376095\nsamples = 964", shape="box"] ;
11 -> 12 ;
13 [label="gini = 0.5188\nsamples = 167\nvalue = [  35.  108.   23.    1.    0.    0.]", shape="box"] ;
12 -> 13 ;
14 [label="gini = 0.6570\nsamples = 797\nvalue = [ 205.  209.  363.   20.    0.    0.]", shape="box"] ;
12 -> 14 ;
15 [label="age_range <= 4.5000\ngini = 0.432396694215\nsamples = 55", shape="box"] ;
11 -> 15 ;
16 [label="gini = 0.4800\nsamples = 5\nvalue = [ 3.  0.  0.  2.  0.  0.]", shape="box"] ;
15 -> 16 ;
17 [label="gini = 0.3864\nsamples = 50\nvalue = [  3.   0.   9.  38.   0.   0.]", shape="box"] ;
15 -> 17 ;
18 [label="images <= 0.5000\ngini = 0.599366229063\nsamples = 423", shape="box"] ;
2 -> 18 ;
19 [label="age_range <= 6.5000\ngini = 0.695215514945\nsamples = 274", shape="box"] ;
18 -> 19 ;
20 [label="l_eye <= 0.5000\ngini = 0.669551108707\nsamples = 43", shape="box"] ;
19 -> 20 ;
21 [label="gini = 0.4490\nsamples = 7\nvalue = [ 0.  1.  5.  1.  0.  0.]", shape="box"] ;
20 -> 21 ;
22 [label="gini = 0.5988\nsamples = 36\nvalue = [ 20.   2.   4.  10.   0.   0.]", shape="box"] ;
20 -> 22 ;
23 [label="age_range <= 14.5000\ngini = 0.668465733401\nsamples = 231", shape="box"] ;
19 -> 23 ;
24 [label="gini = 0.6202\nsamples = 126\nvalue = [ 16.   7.  37.  66.   0.   0.]", shape="box"] ;
23 -> 24 ;
25 [label="gini = 0.6730\nsamples = 105\nvalue = [  3.  26.  42.  34.   0.   0.]", shape="box"] ;
23 -> 25 ;
26 [label="face_images <= 0.5000\ngini = 0.237016350615\nsamples = 149", shape="box"] ;
18 -> 26 ;
27 [label="tattoos <= 0.5000\ngini = 0.399075824407\nsamples = 69", shape="box"] ;
26 -> 27 ;
28 [label="gini = 0.2839\nsamples = 48\nvalue = [  1.   0.   7.  40.   0.   0.]", shape="box"] ;
27 -> 28 ;
29 [label="gini = 0.5397\nsamples = 21\nvalue = [  1.   0.   9.  11.   0.   0.]", shape="box"] ;
27 -> 29 ;
30 [label="age_range <= 8.0000\ngini = 0.0490625\nsamples = 80", shape="box"] ;
26 -> 30 ;
31 [label="gini = 0.3140\nsamples = 11\nvalue = [ 1.  0.  1.  9.  0.  0.]", shape="box"] ;
30 -> 31 ;
32 [label="gini = 0.0000\nsamples = 69\nvalue = [  0.   0.   0.  69.   0.   0.]", shape="box"] ;
30 -> 32 ;
33 [label="images <= 0.5000\ngini = 0.474530381056\nsamples = 3621", shape="box"] ;
1 -> 33 ;
34 [label="age_range <= 1.5000\ngini = 0.371129576975\nsamples = 1917", shape="box"] ;
33 -> 34 ;
35 [label="age_range <= 0.5000\ngini = 0.68798828125\nsamples = 64", shape="box"] ;
34 -> 35 ;
36 [label="height_bin <= 0.5000\ngini = 0.58382642998\nsamples = 39", shape="box"] ;
35 -> 36 ;
37 [label="gini = 0.4688\nsamples = 8\nvalue = [ 0.  5.  0.  3.  0.  0.]", shape="box"] ;
36 -> 37 ;
38 [label="gini = 0.5120\nsamples = 31\nvalue = [  8.   1.   2.  20.   0.   0.]", shape="box"] ;
36 -> 38 ;
39 [label="r_eye <= 0.5000\ngini = 0.6144\nsamples = 25", shape="box"] ;
35 -> 39 ;
40 [label="gini = 0.4922\nsamples = 16\nvalue = [  1.  11.   2.   2.   0.   0.]", shape="box"] ;
39 -> 40 ;
41 [label="gini = 0.7160\nsamples = 9\nvalue = [ 1.  3.  3.  2.  0.  0.]", shape="box"] ;
39 -> 41 ;
42 [label="age_range <= 25.5000\ngini = 0.353111259902\nsamples = 1853", shape="box"] ;
34 -> 42 ;
43 [label="height_bin <= 0.5000\ngini = 0.310303832857\nsamples = 1451", shape="box"] ;
42 -> 43 ;
44 [label="gini = 0.3081\nsamples = 197\nvalue = [   4.   23.    8.  162.    0.    0.]", shape="box"] ;
43 -> 44 ;
45 [label="gini = 0.3090\nsamples = 1254\nvalue = [   73.    34.   114.  1033.     0.     0.]", shape="box"] ;
43 -> 45 ;
46 [label="skeletal_findings <= 0.5000\ngini = 0.480396524838\nsamples = 402", shape="box"] ;
42 -> 46 ;
47 [label="gini = 0.4992\nsamples = 355\nvalue = [  11.   66.   39.  239.    0.    0.]", shape="box"] ;
46 -> 47 ;
48 [label="gini = 0.2825\nsamples = 47\nvalue = [  0.   0.   8.  39.   0.   0.]", shape="box"] ;
46 -> 48 ;
49 [label="face_images <= 0.5000\ngini = 0.542401612334\nsamples = 1704", shape="box"] ;
33 -> 49 ;
50 [label="images <= 1.5000\ngini = 0.596923777315\nsamples = 1240", shape="box"] ;
49 -> 50 ;
51 [label="scars_and_marks <= 0.5000\ngini = 0.594980528345\nsamples = 997", shape="box"] ;
50 -> 51 ;
52 [label="gini = 0.6462\nsamples = 667\nvalue = [   2.  140.  263.  262.    0.    0.]", shape="box"] ;
51 -> 52 ;
53 [label="gini = 0.3390\nsamples = 330\nvalue = [   0.    1.  259.   70.    0.    0.]", shape="box"] ;
51 -> 53 ;
54 [label="artificial_parts_aids <= 0.5000\ngini = 0.159223695575\nsamples = 243", shape="box"] ;
50 -> 54 ;
55 [label="gini = 0.1529\nsamples = 242\nvalue = [   1.    1.   18.  222.    0.    0.]", shape="box"] ;
54 -> 55 ;
56 [label="gini = 0.0000\nsamples = 1\nvalue = [ 0.  0.  1.  0.  0.  0.]", shape="box"] ;
54 -> 56 ;
57 [label="_sex <= 0.5000\ngini = 0.0549011593341\nsamples = 464", shape="box"] ;
49 -> 57 ;
58 [label="gini = 0.0000\nsamples = 1\nvalue = [ 0.  1.  0.  0.  0.  0.]", shape="box"] ;
57 -> 58 ;
59 [label="foreign_objects <= 0.5000\ngini = 0.0508189150484\nsamples = 463", shape="box"] ;
57 -> 59 ;
60 [label="gini = 0.0469\nsamples = 461\nvalue = [   6.    0.    5.  450.    0.    0.]", shape="box"] ;
59 -> 60 ;
61 [label="gini = 0.5000\nsamples = 2\nvalue = [ 1.  0.  0.  1.  0.  0.]", shape="box"] ;
59 -> 61 ;
62 [label="_dental <= 0.5000\ngini = 0.489849679517\nsamples = 5017", shape="box"] ;
0 -> 62 ;
63 [label="images <= 0.5000\ngini = 0.40909365614\nsamples = 1021", shape="box"] ;
62 -> 63 ;
64 [label="weight_bin <= 0.5000\ngini = 0.238651139126\nsamples = 798", shape="box"] ;
63 -> 64 ;
65 [label="l_eye <= 0.5000\ngini = 0.0088201895215\nsamples = 452", shape="box"] ;
64 -> 65 ;
66 [label="all_parts_recovered <= 0.5000\ngini = 0.00442475700709\nsamples = 451", shape="box"] ;
65 -> 66 ;
67 [label="gini = 0.0000\nsamples = 418\nvalue = [   0.    0.    0.  418.    0.    0.]", shape="box"] ;
66 -> 67 ;
68 [label="gini = 0.0588\nsamples = 33\nvalue = [  1.   0.   0.  32.   0.   0.]", shape="box"] ;
66 -> 68 ;
69 [label="gini = 0.0000\nsamples = 1\nvalue = [ 0.  0.  0.  0.  1.  0.]", shape="box"] ;
65 -> 69 ;
70 [label="_fingerprints <= 0.5000\ngini = 0.455227371446\nsamples = 346", shape="box"] ;
64 -> 70 ;
71 [label="_face <= 0.5000\ngini = 0.394625194716\nsamples = 281", shape="box"] ;
70 -> 71 ;
72 [label="gini = 0.4494\nsamples = 217\nvalue = [  74.    0.    0.  143.    0.    0.]", shape="box"] ;
71 -> 72 ;
73 [label="gini = 0.0605\nsamples = 64\nvalue = [  2.   0.   0.  62.   0.   0.]", shape="box"] ;
71 -> 73 ;
74 [label="head_not_recovered <= 0.5000\ngini = 0.55100591716\nsamples = 65", shape="box"] ;
70 -> 74 ;
75 [label="gini = 0.5416\nsamples = 58\nvalue = [  5.   0.   0.  34.  19.   0.]", shape="box"] ;
74 -> 75 ;
76 [label="gini = 0.4082\nsamples = 7\nvalue = [ 0.  0.  0.  2.  5.  0.]", shape="box"] ;
74 -> 76 ;
77 [label="_face <= 0.5000\ngini = 0.439582537352\nsamples = 223", shape="box"] ;
63 -> 77 ;
78 [label="images <= 5.5000\ngini = 0.472519584283\nsamples = 179", shape="box"] ;
77 -> 78 ;
79 [label="images <= 3.5000\ngini = 0.483176359371\nsamples = 169", shape="box"] ;
78 -> 79 ;
80 [label="gini = 0.4665\nsamples = 152\nvalue = [  1.   0.   0.  54.  97.   0.]", shape="box"] ;
79 -> 80 ;
81 [label="gini = 0.4152\nsamples = 17\nvalue = [  0.   0.   0.  12.   5.   0.]", shape="box"] ;
79 -> 81 ;
82 [label="gini = 0.0000\nsamples = 10\nvalue = [  0.   0.   0.   0.  10.   0.]", shape="box"] ;
78 -> 82 ;
83 [label="images <= 6.5000\ngini = 0.168388429752\nsamples = 44", shape="box"] ;
77 -> 83 ;
84 [label="age_range <= 7.5000\ngini = 0.131963223364\nsamples = 43", shape="box"] ;
83 -> 84 ;
85 [label="gini = 0.4938\nsamples = 9\nvalue = [ 1.  0.  0.  2.  6.  0.]", shape="box"] ;
84 -> 85 ;
86 [label="gini = 0.0000\nsamples = 34\nvalue = [  0.   0.   0.   0.  34.   0.]", shape="box"] ;
84 -> 86 ;
87 [label="gini = 0.0000\nsamples = 1\nvalue = [ 0.  0.  0.  1.  0.  0.]", shape="box"] ;
83 -> 87 ;
88 [label="_fingerprints <= 0.5000\ngini = 0.332708083459\nsamples = 3996", shape="box"] ;
62 -> 88 ;
89 [label="images <= 0.5000\ngini = 0.154868950485\nsamples = 2586", shape="box"] ;
88 -> 89 ;
90 [label="age_range <= 80.0000\ngini = 0.24522752\nsamples = 1250", shape="box"] ;
89 -> 90 ;
91 [label="n-hands_not_recovered <= 0.5000\ngini = 0.226710274481\nsamples = 1139", shape="box"] ;
90 -> 91 ;
92 [label="gini = 0.2835\nsamples = 659\nvalue = [  12.    0.    0.   98.  549.    0.]", shape="box"] ;
91 -> 92 ;
93 [label="gini = 0.1399\nsamples = 480\nvalue = [   4.    0.    0.   32.  444.    0.]", shape="box"] ;
91 -> 93 ;
94 [label="_sex <= 0.5000\ngini = 0.394448502557\nsamples = 111", shape="box"] ;
90 -> 94 ;
95 [label="gini = 0.2076\nsamples = 17\nvalue = [  0.   0.   0.   2.  15.   0.]", shape="box"] ;
94 -> 95 ;
96 [label="gini = 0.4183\nsamples = 94\nvalue = [  0.   0.   0.  28.  66.   0.]", shape="box"] ;
94 -> 96 ;
97 [label="face_images <= 0.5000\ngini = 0.0596214009108\nsamples = 1336", shape="box"] ;
89 -> 97 ;
98 [label="all_parts_recovered <= 0.5000\ngini = 0.0910368634364\nsamples = 774", shape="box"] ;
97 -> 98 ;
99 [label="gini = 0.0418\nsamples = 562\nvalue = [   0.    0.    0.   12.  550.    0.]", shape="box"] ;
98 -> 99 ;
100 [label="gini = 0.2080\nsamples = 212\nvalue = [   0.    0.    0.   25.  187.    0.]", shape="box"] ;
98 -> 100 ;
101 [label="artificial_parts_aids <= 0.5000\ngini = 0.0141525563253\nsamples = 562", shape="box"] ;
97 -> 101 ;
102 [label="gini = 0.0108\nsamples = 553\nvalue = [   2.    0.    0.    1.  550.    0.]", shape="box"] ;
101 -> 102 ;
103 [label="gini = 0.1975\nsamples = 9\nvalue = [ 1.  0.  0.  0.  8.  0.]", shape="box"] ;
101 -> 103 ;
104 [label="images <= 0.5000\ngini = 0.525347819526\nsamples = 1410", shape="box"] ;
88 -> 104 ;
105 [label="age_range <= 28.5000\ngini = 0.219822455862\nsamples = 568", shape="box"] ;
104 -> 105 ;
106 [label="finger_toe_nails <= 0.5000\ngini = 0.194917866737\nsamples = 522", shape="box"] ;
105 -> 106 ;
107 [label="gini = 0.1846\nsamples = 513\nvalue = [   7.    0.    0.   45.  461.    0.]", shape="box"] ;
106 -> 107 ;
108 [label="gini = 0.5679\nsamples = 9\nvalue = [ 3.  0.  0.  1.  5.  0.]", shape="box"] ;
106 -> 108 ;
109 [label="other_distinctive_features <= 0.5000\ngini = 0.423440453686\nsamples = 46", shape="box"] ;
105 -> 109 ;
110 [label="gini = 0.3866\nsamples = 42\nvalue = [  0.   0.   0.  11.  31.   0.]", shape="box"] ;
109 -> 110 ;
111 [label="gini = 0.3750\nsamples = 4\nvalue = [ 0.  0.  0.  3.  1.  0.]", shape="box"] ;
109 -> 111 ;
112 [label="images <= 2.5000\ngini = 0.522204230398\nsamples = 842", shape="box"] ;
104 -> 112 ;
113 [label="face_images <= 0.5000\ngini = 0.541044950216\nsamples = 567", shape="box"] ;
112 -> 113 ;
114 [label="gini = 0.5530\nsamples = 243\nvalue = [   1.    0.    0.   20.  137.   85.]", shape="box"] ;
113 -> 114 ;
115 [label="gini = 0.5078\nsamples = 324\nvalue = [   4.    0.    0.    0.  145.  175.]", shape="box"] ;
113 -> 115 ;
116 [label="age_range <= 34.5000\ngini = 0.390267768595\nsamples = 275", shape="box"] ;
112 -> 116 ;
117 [label="gini = 0.3767\nsamples = 270\nvalue = [   0.    0.    1.    1.   65.  203.]", shape="box"] ;
116 -> 117 ;
118 [label="gini = 0.0000\nsamples = 5\nvalue = [ 0.  0.  0.  0.  5.  0.]", shape="box"] ;
116 -> 118 ;
}